digraph Tree {
node [shape=box, style="filled, rounded", color="black", fontname=helvetica] ;
edge [fontname=helvetica] ;
0 [label=<rating &le; 3.5<br/>gini = 0.296<br/>samples = 13763<br/>value = [2485, 11278]<br/>class = recommended>, fillcolor="#65b3eb"] ;
1 [label=<rating &le; 2.5<br/>gini = 0.369<br/>samples = 3130<br/>value = [2365, 765]<br/>class = not recommended>, fillcolor="#edaa79"] ;
0 -> 1 [labeldistance=2.5, labelangle=45, headlabel="True"] ;
2 [label=<rating &le; 1.5<br/>gini = 0.083<br/>samples = 1411<br/>value = [1350, 61]<br/>class = not recommended>, fillcolor="#e68742"] ;
1 -> 2 ;
3 [label=<positive_feedback_count &le; 0.5<br/>gini = 0.02<br/>samples = 496<br/>value = [491, 5]<br/>class = not recommended>, fillcolor="#e5823b"] ;
2 -> 3 ;
4 [label=<age &le; 43.5<br/>gini = 0.042<br/>samples = 188<br/>value = [184, 4]<br/>class = not recommended>, fillcolor="#e6843d"] ;
3 -> 4 ;
5 [label=<gini = 0.0<br/>samples = 105<br/>value = [105, 0]<br/>class = not recommended>, fillcolor="#e58139"] ;
4 -> 5 ;
6 [label=<gini = 0.092<br/>samples = 83<br/>value = [79, 4]<br/>class = not recommended>, fillcolor="#e68743"] ;
4 -> 6 ;
7 [label=<positive_feedback_count &le; 6.5<br/>gini = 0.006<br/>samples = 308<br/>value = [307, 1]<br/>class = not recommended>, fillcolor="#e5813a"] ;
3 -> 7 ;
8 [label=<gini = 0.0<br/>samples = 228<br/>value = [228, 0]<br/>class = not recommended>, fillcolor="#e58139"] ;
7 -> 8 ;
9 [label=<gini = 0.025<br/>samples = 80<br/>value = [79, 1]<br/>class = not recommended>, fillcolor="#e5833c"] ;
7 -> 9 ;
10 [label=<division_name_General &le; 0.5<br/>gini = 0.115<br/>samples = 915<br/>value = [859, 56]<br/>class = not recommended>, fillcolor="#e78946"] ;
2 -> 10 ;
11 [label=<positive_feedback_count &le; 0.5<br/>gini = 0.152<br/>samples = 362<br/>value = [332, 30]<br/>class = not recommended>, fillcolor="#e78c4b"] ;
10 -> 11 ;
12 [label=<gini = 0.214<br/>samples = 148<br/>value = [130, 18]<br/>class = not recommended>, fillcolor="#e99254"] ;
11 -> 12 ;
13 [label=<age &le; 36.5<br/>gini = 0.106<br/>samples = 214<br/>value = [202, 12]<br/>class = not recommended>, fillcolor="#e78845"] ;
11 -> 13 ;
14 [label=<gini = 0.151<br/>samples = 85<br/>value = [78, 7]<br/>class = not recommended>, fillcolor="#e78c4b"] ;
13 -> 14 ;
15 [label=<gini = 0.075<br/>samples = 129<br/>value = [124, 5]<br/>class = not recommended>, fillcolor="#e68641"] ;
13 -> 15 ;
16 [label=<positive_feedback_count &le; 4.5<br/>gini = 0.09<br/>samples = 553<br/>value = [527, 26]<br/>class = not recommended>, fillcolor="#e68743"] ;
10 -> 16 ;
17 [label=<age &le; 34.5<br/>gini = 0.077<br/>samples = 422<br/>value = [405, 17]<br/>class = not recommended>, fillcolor="#e68641"] ;
16 -> 17 ;
18 [label=<gini = 0.107<br/>samples = 123<br/>value = [116, 7]<br/>class = not recommended>, fillcolor="#e78945"] ;
17 -> 18 ;
19 [label=<age &le; 39.5<br/>gini = 0.065<br/>samples = 299<br/>value = [289, 10]<br/>class = not recommended>, fillcolor="#e68540"] ;
17 -> 19 ;
20 [label=<gini = 0.0<br/>samples = 86<br/>value = [86, 0]<br/>class = not recommended>, fillcolor="#e58139"] ;
19 -> 20 ;
21 [label=<positive_feedback_count &le; 0.5<br/>gini = 0.089<br/>samples = 213<br/>value = [203, 10]<br/>class = not recommended>, fillcolor="#e68743"] ;
19 -> 21 ;
22 [label=<gini = 0.107<br/>samples = 106<br/>value = [100, 6]<br/>class = not recommended>, fillcolor="#e78945"] ;
21 -> 22 ;
23 [label=<gini = 0.072<br/>samples = 107<br/>value = [103, 4]<br/>class = not recommended>, fillcolor="#e68641"] ;
21 -> 23 ;
24 [label=<gini = 0.128<br/>samples = 131<br/>value = [122, 9]<br/>class = not recommended>, fillcolor="#e78a48"] ;
16 -> 24 ;
25 [label=<age &le; 46.5<br/>gini = 0.484<br/>samples = 1719<br/>value = [1015, 704]<br/>class = not recommended>, fillcolor="#f7d8c2"] ;
1 -> 25 ;
26 [label=<positive_feedback_count &le; 11.5<br/>gini = 0.474<br/>samples = 1152<br/>value = [708, 444]<br/>class = not recommended>, fillcolor="#f5d0b5"] ;
25 -> 26 ;
27 [label=<positive_feedback_count &le; 5.5<br/>gini = 0.477<br/>samples = 1068<br/>value = [649, 419]<br/>class = not recommended>, fillcolor="#f6d2b9"] ;
26 -> 27 ;
28 [label=<positive_feedback_count &le; 1.5<br/>gini = 0.473<br/>samples = 968<br/>value = [597, 371]<br/>class = not recommended>, fillcolor="#f5cfb4"] ;
27 -> 28 ;
29 [label=<department_name_Dresses &le; 0.5<br/>gini = 0.48<br/>samples = 707<br/>value = [424, 283]<br/>class = not recommended>, fillcolor="#f6d5bd"] ;
28 -> 29 ;
30 [label=<age &le; 41.5<br/>gini = 0.468<br/>samples = 488<br/>value = [306, 182]<br/>class = not recommended>, fillcolor="#f4ccaf"] ;
29 -> 30 ;
31 [label=<age &le; 37.5<br/>gini = 0.478<br/>samples = 385<br/>value = [233, 152]<br/>class = not recommended>, fillcolor="#f6d3ba"] ;
30 -> 31 ;
32 [label=<age &le; 34.5<br/>gini = 0.469<br/>samples = 290<br/>value = [181, 109]<br/>class = not recommended>, fillcolor="#f5cdb0"] ;
31 -> 32 ;
33 [label=<age &le; 29.5<br/>gini = 0.481<br/>samples = 199<br/>value = [119, 80]<br/>class = not recommended>, fillcolor="#f6d6be"] ;
32 -> 33 ;
34 [label=<gini = 0.463<br/>samples = 99<br/>value = [63, 36]<br/>class = not recommended>, fillcolor="#f4c9aa"] ;
33 -> 34 ;
35 [label=<gini = 0.493<br/>samples = 100<br/>value = [56, 44]<br/>class = not recommended>, fillcolor="#f9e4d5"] ;
33 -> 35 ;
36 [label=<gini = 0.434<br/>samples = 91<br/>value = [62, 29]<br/>class = not recommended>, fillcolor="#f1bc96"] ;
32 -> 36 ;
37 [label=<gini = 0.496<br/>samples = 95<br/>value = [52, 43]<br/>class = not recommended>, fillcolor="#fae9dd"] ;
31 -> 37 ;
38 [label=<gini = 0.413<br/>samples = 103<br/>value = [73, 30]<br/>class = not recommended>, fillcolor="#f0b58a"] ;
30 -> 38 ;
39 [label=<age &le; 33.5<br/>gini = 0.497<br/>samples = 219<br/>value = [118, 101]<br/>class = not recommended>, fillcolor="#fbede2"] ;
29 -> 39 ;
40 [label=<gini = 0.49<br/>samples = 105<br/>value = [60, 45]<br/>class = not recommended>, fillcolor="#f8e0ce"] ;
39 -> 40 ;
41 [label=<gini = 0.5<br/>samples = 114<br/>value = [58, 56]<br/>class = not recommended>, fillcolor="#fefbf8"] ;
39 -> 41 ;
42 [label=<age &le; 38.5<br/>gini = 0.447<br/>samples = 261<br/>value = [173, 88]<br/>class = not recommended>, fillcolor="#f2c19e"] ;
28 -> 42 ;
43 [label=<gini = 0.405<br/>samples = 156<br/>value = [112, 44]<br/>class = not recommended>, fillcolor="#efb287"] ;
42 -> 43 ;
44 [label=<gini = 0.487<br/>samples = 105<br/>value = [61, 44]<br/>class = not recommended>, fillcolor="#f8dcc8"] ;
42 -> 44 ;
45 [label=<gini = 0.499<br/>samples = 100<br/>value = [52, 48]<br/>class = not recommended>, fillcolor="#fdf5f0"] ;
27 -> 45 ;
46 [label=<gini = 0.418<br/>samples = 84<br/>value = [59, 25]<br/>class = not recommended>, fillcolor="#f0b68d"] ;
26 -> 46 ;
47 [label=<division_name_General &le; 0.5<br/>gini = 0.497<br/>samples = 567<br/>value = [307, 260]<br/>class = not recommended>, fillcolor="#fbece1"] ;
25 -> 47 ;
48 [label=<positive_feedback_count &le; 0.5<br/>gini = 0.479<br/>samples = 216<br/>value = [130, 86]<br/>class = not recommended>, fillcolor="#f6d4bc"] ;
47 -> 48 ;
49 [label=<gini = 0.491<br/>samples = 92<br/>value = [52, 40]<br/>class = not recommended>, fillcolor="#f9e2d1"] ;
48 -> 49 ;
50 [label=<gini = 0.467<br/>samples = 124<br/>value = [78, 46]<br/>class = not recommended>, fillcolor="#f4cbae"] ;
48 -> 50 ;
51 [label=<positive_feedback_count &le; 1.5<br/>gini = 0.5<br/>samples = 351<br/>value = [177, 174]<br/>class = not recommended>, fillcolor="#fffdfc"] ;
47 -> 51 ;
52 [label=<age &le; 54.5<br/>gini = 0.496<br/>samples = 183<br/>value = [100, 83]<br/>class = not recommended>, fillcolor="#fbeadd"] ;
51 -> 52 ;
53 [label=<gini = 0.489<br/>samples = 101<br/>value = [58, 43]<br/>class = not recommended>, fillcolor="#f8decc"] ;
52 -> 53 ;
54 [label=<gini = 0.5<br/>samples = 82<br/>value = [42, 40]<br/>class = not recommended>, fillcolor="#fef9f6"] ;
52 -> 54 ;
55 [label=<age &le; 54.5<br/>gini = 0.497<br/>samples = 168<br/>value = [77, 91]<br/>class = recommended>, fillcolor="#e1f0fb"] ;
51 -> 55 ;
56 [label=<gini = 0.487<br/>samples = 81<br/>value = [34, 47]<br/>class = recommended>, fillcolor="#c8e4f8"] ;
55 -> 56 ;
57 [label=<gini = 0.5<br/>samples = 87<br/>value = [43, 44]<br/>class = recommended>, fillcolor="#fafdfe"] ;
55 -> 57 ;
58 [label=<rating &le; 4.5<br/>gini = 0.022<br/>samples = 10633<br/>value = [120, 10513]<br/>class = recommended>, fillcolor="#3b9ee5"] ;
0 -> 58 [labeldistance=2.5, labelangle=-45, headlabel="False"] ;
59 [label=<department_name_Dresses &le; 0.5<br/>gini = 0.066<br/>samples = 3031<br/>value = [104, 2927]<br/>class = recommended>, fillcolor="#40a0e6"] ;
58 -> 59 ;
60 [label=<positive_feedback_count &le; 2.5<br/>gini = 0.054<br/>samples = 2180<br/>value = [60, 2120]<br/>class = recommended>, fillcolor="#3fa0e6"] ;
59 -> 60 ;
61 [label=<department_name_Tops &le; 0.5<br/>gini = 0.043<br/>samples = 1633<br/>value = [36, 1597]<br/>class = recommended>, fillcolor="#3d9fe6"] ;
60 -> 61 ;
62 [label=<positive_feedback_count &le; 0.5<br/>gini = 0.06<br/>samples = 616<br/>value = [19, 597]<br/>class = recommended>, fillcolor="#3fa0e6"] ;
61 -> 62 ;
63 [label=<age &le; 37.5<br/>gini = 0.075<br/>samples = 361<br/>value = [14, 347]<br/>class = recommended>, fillcolor="#41a1e6"] ;
62 -> 63 ;
64 [label=<gini = 0.103<br/>samples = 147<br/>value = [8, 139]<br/>class = recommended>, fillcolor="#44a3e6"] ;
63 -> 64 ;
65 [label=<age &le; 45.5<br/>gini = 0.055<br/>samples = 214<br/>value = [6, 208]<br/>class = recommended>, fillcolor="#3fa0e6"] ;
63 -> 65 ;
66 [label=<gini = 0.039<br/>samples = 100<br/>value = [2, 98]<br/>class = recommended>, fillcolor="#3d9fe6"] ;
65 -> 66 ;
67 [label=<gini = 0.068<br/>samples = 114<br/>value = [4, 110]<br/>class = recommended>, fillcolor="#40a1e6"] ;
65 -> 67 ;
68 [label=<age &le; 46.5<br/>gini = 0.038<br/>samples = 255<br/>value = [5, 250]<br/>class = recommended>, fillcolor="#3d9fe6"] ;
62 -> 68 ;
69 [label=<age &le; 37.5<br/>gini = 0.023<br/>samples = 173<br/>value = [2, 171]<br/>class = recommended>, fillcolor="#3b9ee5"] ;
68 -> 69 ;
70 [label=<gini = 0.021<br/>samples = 93<br/>value = [1, 92]<br/>class = recommended>, fillcolor="#3b9ee5"] ;
69 -> 70 ;
71 [label=<gini = 0.025<br/>samples = 80<br/>value = [1, 79]<br/>class = recommended>, fillcolor="#3c9ee5"] ;
69 -> 71 ;
72 [label=<gini = 0.07<br/>samples = 82<br/>value = [3, 79]<br/>class = recommended>, fillcolor="#41a1e6"] ;
68 -> 72 ;
73 [label=<positive_feedback_count &le; 1.5<br/>gini = 0.033<br/>samples = 1017<br/>value = [17, 1000]<br/>class = recommended>, fillcolor="#3c9fe5"] ;
61 -> 73 ;
74 [label=<age &le; 46.5<br/>gini = 0.027<br/>samples = 876<br/>value = [12, 864]<br/>class = recommended>, fillcolor="#3c9ee5"] ;
73 -> 74 ;
75 [label=<age &le; 37.5<br/>gini = 0.039<br/>samples = 558<br/>value = [11, 547]<br/>class = recommended>, fillcolor="#3d9fe6"] ;
74 -> 75 ;
76 [label=<division_name_General &le; 0.5<br/>gini = 0.014<br/>samples = 286<br/>value = [2, 284]<br/>class = recommended>, fillcolor="#3a9ee5"] ;
75 -> 76 ;
77 [label=<gini = 0.044<br/>samples = 89<br/>value = [2, 87]<br/>class = recommended>, fillcolor="#3e9fe6"] ;
76 -> 77 ;
78 [label=<gini = 0.0<br/>samples = 197<br/>value = [0, 197]<br/>class = recommended>, fillcolor="#399de5"] ;
76 -> 78 ;
79 [label=<age &le; 39.5<br/>gini = 0.064<br/>samples = 272<br/>value = [9, 263]<br/>class = recommended>, fillcolor="#40a0e6"] ;
75 -> 79 ;
80 [label=<gini = 0.087<br/>samples = 88<br/>value = [4, 84]<br/>class = recommended>, fillcolor="#42a2e6"] ;
79 -> 80 ;
81 [label=<age &le; 42.5<br/>gini = 0.053<br/>samples = 184<br/>value = [5, 179]<br/>class = recommended>, fillcolor="#3fa0e6"] ;
79 -> 81 ;
82 [label=<gini = 0.023<br/>samples = 86<br/>value = [1, 85]<br/>class = recommended>, fillcolor="#3b9ee5"] ;
81 -> 82 ;
83 [label=<gini = 0.078<br/>samples = 98<br/>value = [4, 94]<br/>class = recommended>, fillcolor="#41a1e6"] ;
81 -> 83 ;
84 [label=<age &le; 55.5<br/>gini = 0.006<br/>samples = 318<br/>value = [1, 317]<br/>class = recommended>, fillcolor="#3a9de5"] ;
74 -> 84 ;
85 [label=<gini = 0.0<br/>samples = 166<br/>value = [0, 166]<br/>class = recommended>, fillcolor="#399de5"] ;
84 -> 85 ;
86 [label=<gini = 0.013<br/>samples = 152<br/>value = [1, 151]<br/>class = recommended>, fillcolor="#3a9ee5"] ;
84 -> 86 ;
87 [label=<gini = 0.068<br/>samples = 141<br/>value = [5, 136]<br/>class = recommended>, fillcolor="#40a1e6"] ;
73 -> 87 ;
88 [label=<division_name_General &le; 0.5<br/>gini = 0.084<br/>samples = 547<br/>value = [24, 523]<br/>class = recommended>, fillcolor="#42a1e6"] ;
60 -> 88 ;
89 [label=<positive_feedback_count &le; 7.5<br/>gini = 0.045<br/>samples = 218<br/>value = [5, 213]<br/>class = recommended>, fillcolor="#3e9fe6"] ;
88 -> 89 ;
90 [label=<gini = 0.029<br/>samples = 136<br/>value = [2, 134]<br/>class = recommended>, fillcolor="#3c9ee5"] ;
89 -> 90 ;
91 [label=<gini = 0.07<br/>samples = 82<br/>value = [3, 79]<br/>class = recommended>, fillcolor="#41a1e6"] ;
89 -> 91 ;
92 [label=<age &le; 37.5<br/>gini = 0.109<br/>samples = 329<br/>value = [19, 310]<br/>class = recommended>, fillcolor="#45a3e7"] ;
88 -> 92 ;
93 [label=<gini = 0.174<br/>samples = 104<br/>value = [10, 94]<br/>class = recommended>, fillcolor="#4ea7e8"] ;
92 -> 93 ;
94 [label=<age &le; 51.5<br/>gini = 0.077<br/>samples = 225<br/>value = [9, 216]<br/>class = recommended>, fillcolor="#41a1e6"] ;
92 -> 94 ;
95 [label=<gini = 0.045<br/>samples = 129<br/>value = [3, 126]<br/>class = recommended>, fillcolor="#3e9fe6"] ;
94 -> 95 ;
96 [label=<gini = 0.117<br/>samples = 96<br/>value = [6, 90]<br/>class = recommended>, fillcolor="#46a4e7"] ;
94 -> 96 ;
97 [label=<positive_feedback_count &le; 0.5<br/>gini = 0.098<br/>samples = 851<br/>value = [44, 807]<br/>class = recommended>, fillcolor="#44a2e6"] ;
59 -> 97 ;
98 [label=<age &le; 31.5<br/>gini = 0.069<br/>samples = 391<br/>value = [14, 377]<br/>class = recommended>, fillcolor="#40a1e6"] ;
97 -> 98 ;
99 [label=<gini = 0.158<br/>samples = 81<br/>value = [7, 74]<br/>class = recommended>, fillcolor="#4ca6e7"] ;
98 -> 99 ;
100 [label=<age &le; 41.5<br/>gini = 0.044<br/>samples = 310<br/>value = [7, 303]<br/>class = recommended>, fillcolor="#3e9fe6"] ;
98 -> 100 ;
101 [label=<gini = 0.069<br/>samples = 140<br/>value = [5, 135]<br/>class = recommended>, fillcolor="#40a1e6"] ;
100 -> 101 ;
102 [label=<age &le; 49.5<br/>gini = 0.023<br/>samples = 170<br/>value = [2, 168]<br/>class = recommended>, fillcolor="#3b9ee5"] ;
100 -> 102 ;
103 [label=<gini = 0.024<br/>samples = 82<br/>value = [1, 81]<br/>class = recommended>, fillcolor="#3b9ee5"] ;
102 -> 103 ;
104 [label=<gini = 0.022<br/>samples = 88<br/>value = [1, 87]<br/>class = recommended>, fillcolor="#3b9ee5"] ;
102 -> 104 ;
105 [label=<age &le; 38.5<br/>gini = 0.122<br/>samples = 460<br/>value = [30, 430]<br/>class = recommended>, fillcolor="#47a4e7"] ;
97 -> 105 ;
106 [label=<age &le; 33.5<br/>gini = 0.144<br/>samples = 179<br/>value = [14, 165]<br/>class = recommended>, fillcolor="#4aa5e7"] ;
105 -> 106 ;
107 [label=<gini = 0.121<br/>samples = 93<br/>value = [6, 87]<br/>class = recommended>, fillcolor="#47a4e7"] ;
106 -> 107 ;
108 [label=<gini = 0.169<br/>samples = 86<br/>value = [8, 78]<br/>class = recommended>, fillcolor="#4da7e8"] ;
106 -> 108 ;
109 [label=<positive_feedback_count &le; 4.5<br/>gini = 0.107<br/>samples = 281<br/>value = [16, 265]<br/>class = recommended>, fillcolor="#45a3e7"] ;
105 -> 109 ;
110 [label=<age &le; 47.5<br/>gini = 0.087<br/>samples = 176<br/>value = [8, 168]<br/>class = recommended>, fillcolor="#42a2e6"] ;
109 -> 110 ;
111 [label=<gini = 0.069<br/>samples = 84<br/>value = [3, 81]<br/>class = recommended>, fillcolor="#40a1e6"] ;
110 -> 111 ;
112 [label=<gini = 0.103<br/>samples = 92<br/>value = [5, 87]<br/>class = recommended>, fillcolor="#44a3e6"] ;
110 -> 112 ;
113 [label=<gini = 0.141<br/>samples = 105<br/>value = [8, 97]<br/>class = recommended>, fillcolor="#49a5e7"] ;
109 -> 113 ;
114 [label=<class_name_Outerwear &le; 0.5<br/>gini = 0.004<br/>samples = 7602<br/>value = [16, 7586]<br/>class = recommended>, fillcolor="#399de5"] ;
58 -> 114 ;
115 [label=<age &le; 63.5<br/>gini = 0.003<br/>samples = 7494<br/>value = [13, 7481]<br/>class = recommended>, fillcolor="#399de5"] ;
114 -> 115 ;
116 [label=<age &le; 52.5<br/>gini = 0.002<br/>samples = 6910<br/>value = [8, 6902]<br/>class = recommended>, fillcolor="#399de5"] ;
115 -> 116 ;
117 [label=<department_name_Jackets &le; 0.5<br/>gini = 0.001<br/>samples = 5595<br/>value = [4, 5591]<br/>class = recommended>, fillcolor="#399de5"] ;
116 -> 117 ;
118 [label=<class_name_Blouses &le; 0.5<br/>gini = 0.001<br/>samples = 5407<br/>value = [3, 5404]<br/>class = recommended>, fillcolor="#399de5"] ;
117 -> 118 ;
119 [label=<class_name_Knits &le; 0.5<br/>gini = 0.0<br/>samples = 4728<br/>value = [1, 4727]<br/>class = recommended>, fillcolor="#399de5"] ;
118 -> 119 ;
120 [label=<gini = 0.0<br/>samples = 3682<br/>value = [0, 3682]<br/>class = recommended>, fillcolor="#399de5"] ;
119 -> 120 ;
121 [label=<age &le; 33.5<br/>gini = 0.002<br/>samples = 1046<br/>value = [1, 1045]<br/>class = recommended>, fillcolor="#399de5"] ;
119 -> 121 ;
122 [label=<age &le; 31.5<br/>gini = 0.007<br/>samples = 304<br/>value = [1, 303]<br/>class = recommended>, fillcolor="#3a9de5"] ;
121 -> 122 ;
123 [label=<gini = 0.0<br/>samples = 222<br/>value = [0, 222]<br/>class = recommended>, fillcolor="#399de5"] ;
122 -> 123 ;
124 [label=<gini = 0.024<br/>samples = 82<br/>value = [1, 81]<br/>class = recommended>, fillcolor="#3b9ee5"] ;
122 -> 124 ;
125 [label=<gini = 0.0<br/>samples = 742<br/>value = [0, 742]<br/>class = recommended>, fillcolor="#399de5"] ;
121 -> 125 ;
126 [label=<age &le; 27.5<br/>gini = 0.006<br/>samples = 679<br/>value = [2, 677]<br/>class = recommended>, fillcolor="#3a9de5"] ;
118 -> 126 ;
127 [label=<gini = 0.025<br/>samples = 80<br/>value = [1, 79]<br/>class = recommended>, fillcolor="#3c9ee5"] ;
126 -> 127 ;
128 [label=<age &le; 46.5<br/>gini = 0.003<br/>samples = 599<br/>value = [1, 598]<br/>class = recommended>, fillcolor="#399de5"] ;
126 -> 128 ;
129 [label=<gini = 0.0<br/>samples = 474<br/>value = [0, 474]<br/>class = recommended>, fillcolor="#399de5"] ;
128 -> 129 ;
130 [label=<gini = 0.016<br/>samples = 125<br/>value = [1, 124]<br/>class = recommended>, fillcolor="#3b9ee5"] ;
128 -> 130 ;
131 [label=<positive_feedback_count &le; 0.5<br/>gini = 0.011<br/>samples = 188<br/>value = [1, 187]<br/>class = recommended>, fillcolor="#3a9ee5"] ;
117 -> 131 ;
132 [label=<gini = 0.023<br/>samples = 86<br/>value = [1, 85]<br/>class = recommended>, fillcolor="#3b9ee5"] ;
131 -> 132 ;
133 [label=<gini = 0.0<br/>samples = 102<br/>value = [0, 102]<br/>class = recommended>, fillcolor="#399de5"] ;
131 -> 133 ;
134 [label=<age &le; 53.5<br/>gini = 0.006<br/>samples = 1315<br/>value = [4, 1311]<br/>class = recommended>, fillcolor="#3a9de5"] ;
116 -> 134 ;
135 [label=<gini = 0.023<br/>samples = 170<br/>value = [2, 168]<br/>class = recommended>, fillcolor="#3b9ee5"] ;
134 -> 135 ;
136 [label=<age &le; 58.5<br/>gini = 0.003<br/>samples = 1145<br/>value = [2, 1143]<br/>class = recommended>, fillcolor="#399de5"] ;
134 -> 136 ;
137 [label=<age &le; 57.5<br/>gini = 0.006<br/>samples = 628<br/>value = [2, 626]<br/>class = recommended>, fillcolor="#3a9de5"] ;
136 -> 137 ;
138 [label=<division_name_General &le; 0.5<br/>gini = 0.004<br/>samples = 527<br/>value = [1, 526]<br/>class = recommended>, fillcolor="#399de5"] ;
137 -> 138 ;
139 [label=<positive_feedback_count &le; 0.5<br/>gini = 0.009<br/>samples = 233<br/>value = [1, 232]<br/>class = recommended>, fillcolor="#3a9de5"] ;
138 -> 139 ;
140 [label=<gini = 0.018<br/>samples = 112<br/>value = [1, 111]<br/>class = recommended>, fillcolor="#3b9ee5"] ;
139 -> 140 ;
141 [label=<gini = 0.0<br/>samples = 121<br/>value = [0, 121]<br/>class = recommended>, fillcolor="#399de5"] ;
139 -> 141 ;
142 [label=<gini = 0.0<br/>samples = 294<br/>value = [0, 294]<br/>class = recommended>, fillcolor="#399de5"] ;
138 -> 142 ;
143 [label=<gini = 0.02<br/>samples = 101<br/>value = [1, 100]<br/>class = recommended>, fillcolor="#3b9ee5"] ;
137 -> 143 ;
144 [label=<gini = 0.0<br/>samples = 517<br/>value = [0, 517]<br/>class = recommended>, fillcolor="#399de5"] ;
136 -> 144 ;
145 [label=<age &le; 67.5<br/>gini = 0.017<br/>samples = 584<br/>value = [5, 579]<br/>class = recommended>, fillcolor="#3b9ee5"] ;
115 -> 145 ;
146 [label=<positive_feedback_count &le; 3.5<br/>gini = 0.03<br/>samples = 326<br/>value = [5, 321]<br/>class = recommended>, fillcolor="#3c9fe5"] ;
145 -> 146 ;
147 [label=<department_name_Tops &le; 0.5<br/>gini = 0.016<br/>samples = 242<br/>value = [2, 240]<br/>class = recommended>, fillcolor="#3b9ee5"] ;
146 -> 147 ;
148 [label=<gini = 0.038<br/>samples = 103<br/>value = [2, 101]<br/>class = recommended>, fillcolor="#3d9fe6"] ;
147 -> 148 ;
149 [label=<gini = 0.0<br/>samples = 139<br/>value = [0, 139]<br/>class = recommended>, fillcolor="#399de5"] ;
147 -> 149 ;
150 [label=<gini = 0.069<br/>samples = 84<br/>value = [3, 81]<br/>class = recommended>, fillcolor="#40a1e6"] ;
146 -> 150 ;
151 [label=<gini = 0.0<br/>samples = 258<br/>value = [0, 258]<br/>class = recommended>, fillcolor="#399de5"] ;
145 -> 151 ;
152 [label=<gini = 0.054<br/>samples = 108<br/>value = [3, 105]<br/>class = recommended>, fillcolor="#3fa0e6"] ;
114 -> 152 ;
}