digraph Tree {
node [shape=box, style="filled, rounded", color="black", fontname=helvetica] ;
edge [fontname=helvetica] ;
0 [label=<rating_2 &le; 0.5<br/>gini = 0.29<br/>samples = 16440<br/>value = [2898, 13542]<br/>class = rating>, fillcolor="#63b2eb"] ;
1 [label=<rating_3 &le; 0.5<br/>gini = 0.214<br/>samples = 15341<br/>value = [1870, 13471]<br/>class = rating>, fillcolor="#54abe9"] ;
0 -> 1 [labeldistance=2.5, labelangle=45, headlabel="True"] ;
2 [label=<rating_1 &le; 0.5<br/>gini = 0.099<br/>samples = 13298<br/>value = [694, 12604]<br/>class = rating>, fillcolor="#44a2e6"] ;
1 -> 2 ;
3 [label=<rating_5 &le; 0.5<br/>gini = 0.02<br/>samples = 12717<br/>value = [128, 12589]<br/>class = rating>, fillcolor="#3b9ee5"] ;
2 -> 3 ;
4 [label=<class_name_Dresses &le; 0.5<br/>gini = 0.06<br/>samples = 3554<br/>value = [110, 3444]<br/>class = rating>, fillcolor="#3fa0e6"] ;
3 -> 4 ;
5 [label=<positive_feedback_count_0 &le; 0.5<br/>gini = 0.049<br/>samples = 2569<br/>value = [65, 2504]<br/>class = rating>, fillcolor="#3ea0e6"] ;
4 -> 5 ;
6 [label=<department_name_Tops &le; 0.5<br/>gini = 0.068<br/>samples = 1254<br/>value = [44, 1210]<br/>class = rating>, fillcolor="#40a1e6"] ;
5 -> 6 ;
7 [label=<department_name_Bottoms &le; 0.5<br/>gini = 0.049<br/>samples = 520<br/>value = [13, 507]<br/>class = rating>, fillcolor="#3ea0e6"] ;
6 -> 7 ;
8 [label=<gini = 0.027<br/>samples = 221<br/>value = [3, 218]<br/>class = rating>, fillcolor="#3c9ee5"] ;
7 -> 8 ;
9 [label=<gini = 0.065<br/>samples = 299<br/>value = [10, 289]<br/>class = rating>, fillcolor="#40a0e6"] ;
7 -> 9 ;
10 [label=<division_name_General Petite &le; 0.5<br/>gini = 0.081<br/>samples = 734<br/>value = [31, 703]<br/>class = rating>, fillcolor="#42a1e6"] ;
6 -> 10 ;
11 [label=<class_name_Knits &le; 0.5<br/>gini = 0.095<br/>samples = 502<br/>value = [25, 477]<br/>class = rating>, fillcolor="#43a2e6"] ;
10 -> 11 ;
12 [label=<gini = 0.104<br/>samples = 255<br/>value = [14, 241]<br/>class = rating>, fillcolor="#45a3e7"] ;
11 -> 12 ;
13 [label=<gini = 0.085<br/>samples = 247<br/>value = [11, 236]<br/>class = rating>, fillcolor="#42a2e6"] ;
11 -> 13 ;
14 [label=<gini = 0.05<br/>samples = 232<br/>value = [6, 226]<br/>class = rating>, fillcolor="#3ea0e6"] ;
10 -> 14 ;
15 [label=<department_name_Tops &le; 0.5<br/>gini = 0.031<br/>samples = 1315<br/>value = [21, 1294]<br/>class = rating>, fillcolor="#3c9fe5"] ;
5 -> 15 ;
16 [label=<division_name_General &le; 0.5<br/>gini = 0.055<br/>samples = 462<br/>value = [13, 449]<br/>class = rating>, fillcolor="#3fa0e6"] ;
15 -> 16 ;
17 [label=<gini = 0.065<br/>samples = 236<br/>value = [8, 228]<br/>class = rating>, fillcolor="#40a0e6"] ;
16 -> 17 ;
18 [label=<gini = 0.043<br/>samples = 226<br/>value = [5, 221]<br/>class = rating>, fillcolor="#3d9fe6"] ;
16 -> 18 ;
19 [label=<division_name_General &le; 0.5<br/>gini = 0.019<br/>samples = 853<br/>value = [8, 845]<br/>class = rating>, fillcolor="#3b9ee5"] ;
15 -> 19 ;
20 [label=<gini = 0.0<br/>samples = 299<br/>value = [0, 299]<br/>class = rating>, fillcolor="#399de5"] ;
19 -> 20 ;
21 [label=<class_name_Knits &le; 0.5<br/>gini = 0.028<br/>samples = 554<br/>value = [8, 546]<br/>class = rating>, fillcolor="#3c9ee5"] ;
19 -> 21 ;
22 [label=<gini = 0.03<br/>samples = 265<br/>value = [4, 261]<br/>class = rating>, fillcolor="#3c9fe5"] ;
21 -> 22 ;
23 [label=<gini = 0.027<br/>samples = 289<br/>value = [4, 285]<br/>class = rating>, fillcolor="#3c9ee5"] ;
21 -> 23 ;
24 [label=<positive_feedback_count_0 &le; 0.5<br/>gini = 0.087<br/>samples = 985<br/>value = [45, 940]<br/>class = rating>, fillcolor="#42a2e6"] ;
4 -> 24 ;
25 [label=<division_name_General Petite &le; 0.5<br/>gini = 0.097<br/>samples = 510<br/>value = [26, 484]<br/>class = rating>, fillcolor="#44a2e6"] ;
24 -> 25 ;
26 [label=<gini = 0.101<br/>samples = 300<br/>value = [16, 284]<br/>class = rating>, fillcolor="#44a3e6"] ;
25 -> 26 ;
27 [label=<gini = 0.091<br/>samples = 210<br/>value = [10, 200]<br/>class = rating>, fillcolor="#43a2e6"] ;
25 -> 27 ;
28 [label=<division_name_General Petite &le; 0.5<br/>gini = 0.077<br/>samples = 475<br/>value = [19, 456]<br/>class = rating>, fillcolor="#41a1e6"] ;
24 -> 28 ;
29 [label=<gini = 0.086<br/>samples = 265<br/>value = [12, 253]<br/>class = rating>, fillcolor="#42a2e6"] ;
28 -> 29 ;
30 [label=<gini = 0.064<br/>samples = 210<br/>value = [7, 203]<br/>class = rating>, fillcolor="#40a0e6"] ;
28 -> 30 ;
31 [label=<age_53 &le; 0.5<br/>gini = 0.004<br/>samples = 9163<br/>value = [18, 9145]<br/>class = rating>, fillcolor="#399de5"] ;
3 -> 31 ;
32 [label=<age_47 &le; 0.5<br/>gini = 0.003<br/>samples = 8947<br/>value = [14, 8933]<br/>class = rating>, fillcolor="#399de5"] ;
31 -> 32 ;
33 [label=<department_name_Jackets &le; 0.5<br/>gini = 0.003<br/>samples = 8747<br/>value = [12, 8735]<br/>class = rating>, fillcolor="#399de5"] ;
32 -> 33 ;
34 [label=<class_name_Sweaters &le; 0.5<br/>gini = 0.002<br/>samples = 8309<br/>value = [9, 8300]<br/>class = rating>, fillcolor="#399de5"] ;
33 -> 34 ;
35 [label=<age_33 &le; 0.5<br/>gini = 0.002<br/>samples = 7767<br/>value = [6, 7761]<br/>class = rating>, fillcolor="#399de5"] ;
34 -> 35 ;
36 [label=<positive_feedback_count_4 &le; 0.5<br/>gini = 0.001<br/>samples = 7540<br/>value = [5, 7535]<br/>class = rating>, fillcolor="#399de5"] ;
35 -> 36 ;
37 [label=<class_name_Fine gauge &le; 0.5<br/>gini = 0.001<br/>samples = 7283<br/>value = [4, 7279]<br/>class = rating>, fillcolor="#399de5"] ;
36 -> 37 ;
38 [label=<department_name_Bottoms &le; 0.5<br/>gini = 0.001<br/>samples = 6894<br/>value = [3, 6891]<br/>class = rating>, fillcolor="#399de5"] ;
37 -> 38 ;
39 [label=<class_name_Blouses &le; 0.5<br/>gini = 0.0<br/>samples = 5493<br/>value = [1, 5492]<br/>class = rating>, fillcolor="#399de5"] ;
38 -> 39 ;
40 [label=<gini = 0.0<br/>samples = 4452<br/>value = [0, 4452]<br/>class = rating>, fillcolor="#399de5"] ;
39 -> 40 ;
41 [label=<positive_feedback_count_0 &le; 0.5<br/>gini = 0.002<br/>samples = 1041<br/>value = [1, 1040]<br/>class = rating>, fillcolor="#399de5"] ;
39 -> 41 ;
42 [label=<gini = 0.0<br/>samples = 546<br/>value = [0, 546]<br/>class = rating>, fillcolor="#399de5"] ;
41 -> 42 ;
43 [label=<gini = 0.004<br/>samples = 495<br/>value = [1, 494]<br/>class = rating>, fillcolor="#399de5"] ;
41 -> 43 ;
44 [label=<positive_feedback_count_0 &le; 0.5<br/>gini = 0.003<br/>samples = 1401<br/>value = [2, 1399]<br/>class = rating>, fillcolor="#399de5"] ;
38 -> 44 ;
45 [label=<gini = 0.0<br/>samples = 674<br/>value = [0, 674]<br/>class = rating>, fillcolor="#399de5"] ;
44 -> 45 ;
46 [label=<class_name_Jeans &le; 0.5<br/>gini = 0.005<br/>samples = 727<br/>value = [2, 725]<br/>class = rating>, fillcolor="#3a9de5"] ;
44 -> 46 ;
47 [label=<class_name_Pants &le; 0.5<br/>gini = 0.008<br/>samples = 473<br/>value = [2, 471]<br/>class = rating>, fillcolor="#3a9de5"] ;
46 -> 47 ;
48 [label=<gini = 0.009<br/>samples = 218<br/>value = [1, 217]<br/>class = rating>, fillcolor="#3a9de5"] ;
47 -> 48 ;
49 [label=<gini = 0.008<br/>samples = 255<br/>value = [1, 254]<br/>class = rating>, fillcolor="#3a9de5"] ;
47 -> 49 ;
50 [label=<gini = 0.0<br/>samples = 254<br/>value = [0, 254]<br/>class = rating>, fillcolor="#399de5"] ;
46 -> 50 ;
51 [label=<gini = 0.005<br/>samples = 389<br/>value = [1, 388]<br/>class = rating>, fillcolor="#3a9de5"] ;
37 -> 51 ;
52 [label=<gini = 0.008<br/>samples = 257<br/>value = [1, 256]<br/>class = rating>, fillcolor="#3a9de5"] ;
36 -> 52 ;
53 [label=<gini = 0.009<br/>samples = 227<br/>value = [1, 226]<br/>class = rating>, fillcolor="#3a9de5"] ;
35 -> 53 ;
54 [label=<positive_feedback_count_0 &le; 0.5<br/>gini = 0.011<br/>samples = 542<br/>value = [3, 539]<br/>class = rating>, fillcolor="#3a9ee5"] ;
34 -> 54 ;
55 [label=<gini = 0.023<br/>samples = 261<br/>value = [3, 258]<br/>class = rating>, fillcolor="#3b9ee5"] ;
54 -> 55 ;
56 [label=<gini = 0.0<br/>samples = 281<br/>value = [0, 281]<br/>class = rating>, fillcolor="#399de5"] ;
54 -> 56 ;
57 [label=<gini = 0.014<br/>samples = 438<br/>value = [3, 435]<br/>class = rating>, fillcolor="#3a9ee5"] ;
33 -> 57 ;
58 [label=<gini = 0.02<br/>samples = 200<br/>value = [2, 198]<br/>class = rating>, fillcolor="#3b9ee5"] ;
32 -> 58 ;
59 [label=<gini = 0.036<br/>samples = 216<br/>value = [4, 212]<br/>class = rating>, fillcolor="#3d9fe5"] ;
31 -> 59 ;
60 [label=<department_name_Tops &le; 0.5<br/>gini = 0.05<br/>samples = 581<br/>value = [566, 15]<br/>class = age>, fillcolor="#e6843e"] ;
2 -> 60 ;
61 [label=<gini = 0.044<br/>samples = 309<br/>value = [302, 7]<br/>class = age>, fillcolor="#e6843e"] ;
60 -> 61 ;
62 [label=<gini = 0.057<br/>samples = 272<br/>value = [264, 8]<br/>class = age>, fillcolor="#e6853f"] ;
60 -> 62 ;
63 [label=<positive_feedback_count_0 &le; 0.5<br/>gini = 0.489<br/>samples = 2043<br/>value = [1176, 867]<br/>class = age>, fillcolor="#f8decb"] ;
1 -> 63 ;
64 [label=<division_name_General &le; 0.5<br/>gini = 0.483<br/>samples = 1179<br/>value = [697, 482]<br/>class = age>, fillcolor="#f7d8c2"] ;
63 -> 64 ;
65 [label=<gini = 0.468<br/>samples = 445<br/>value = [279, 166]<br/>class = age>, fillcolor="#f4ccaf"] ;
64 -> 65 ;
66 [label=<department_name_Tops &le; 0.5<br/>gini = 0.49<br/>samples = 734<br/>value = [418, 316]<br/>class = age>, fillcolor="#f9e0cf"] ;
64 -> 66 ;
67 [label=<gini = 0.495<br/>samples = 398<br/>value = [218, 180]<br/>class = age>, fillcolor="#fae9dc"] ;
66 -> 67 ;
68 [label=<gini = 0.482<br/>samples = 336<br/>value = [200, 136]<br/>class = age>, fillcolor="#f7d7c0"] ;
66 -> 68 ;
69 [label=<department_name_Tops &le; 0.5<br/>gini = 0.494<br/>samples = 864<br/>value = [479, 385]<br/>class = age>, fillcolor="#fae6d8"] ;
63 -> 69 ;
70 [label=<division_name_General &le; 0.5<br/>gini = 0.498<br/>samples = 463<br/>value = [246, 217]<br/>class = age>, fillcolor="#fcf0e8"] ;
69 -> 70 ;
71 [label=<gini = 0.499<br/>samples = 211<br/>value = [100, 111]<br/>class = rating>, fillcolor="#ebf5fc"] ;
70 -> 71 ;
72 [label=<gini = 0.487<br/>samples = 252<br/>value = [146, 106]<br/>class = age>, fillcolor="#f8dcc9"] ;
70 -> 72 ;
73 [label=<gini = 0.487<br/>samples = 401<br/>value = [233, 168]<br/>class = age>, fillcolor="#f8dcc8"] ;
69 -> 73 ;
74 [label=<department_name_Dresses &le; 0.5<br/>gini = 0.121<br/>samples = 1099<br/>value = [1028, 71]<br/>class = age>, fillcolor="#e78a47"] ;
0 -> 74 [labeldistance=2.5, labelangle=-45, headlabel="False"] ;
75 [label=<department_name_Tops &le; 0.5<br/>gini = 0.131<br/>samples = 778<br/>value = [723, 55]<br/>class = age>, fillcolor="#e78b48"] ;
74 -> 75 ;
76 [label=<gini = 0.157<br/>samples = 267<br/>value = [244, 23]<br/>class = age>, fillcolor="#e78d4c"] ;
75 -> 76 ;
77 [label=<positive_feedback_count_0 &le; 0.5<br/>gini = 0.117<br/>samples = 511<br/>value = [479, 32]<br/>class = age>, fillcolor="#e78946"] ;
75 -> 77 ;
78 [label=<gini = 0.104<br/>samples = 290<br/>value = [274, 16]<br/>class = age>, fillcolor="#e78845"] ;
77 -> 78 ;
79 [label=<gini = 0.134<br/>samples = 221<br/>value = [205, 16]<br/>class = age>, fillcolor="#e78b48"] ;
77 -> 79 ;
80 [label=<gini = 0.095<br/>samples = 321<br/>value = [305, 16]<br/>class = age>, fillcolor="#e68843"] ;
74 -> 80 ;
}